     -1.0768943782
      0.3563458393
     -1.3084861447
      0.1127640916
     -0.5646591931
     -0.4969830793
      1.4237705140
     -0.2005662393
     -0.8957859374
      0.6076110858
      0.2869360573
     -1.9322916533
      0.8079773796
     -0.3228524969
      0.9865334313
      0.4200189214
      0.1178789134
     -0.6095488027
     -1.2436722281
      0.7121631694
      0.7485303755
     -0.6696591739
     -1.1314565303
      0.2837862274
      0.5551317059
     -0.3683225392
      0.1034426694
      0.1873800749
      0.4567846701
     -0.3981582793
      0.4785234928
     -0.0092620172
     -0.4031784663
     -0.5013391213
      0.4494933170
      0.5686500389
     -0.0357819338
      1.0746965520
     -0.1588928613
      0.8241095412
     -0.1278468297
      0.7661667004
      0.5901496187
      1.0831406976
      3.1755622669
     -1.9228249881
     -2.0835753719
     -0.4060715225
      1.4250497810
     -1.2877399586
     -2.5409460713
      0.3881315046
      0.6449418987
      0.2427247903
     -2.2378747836
     -0.2975308083
     -0.3499868018
     -1.0979584750
      1.4993062954
     -1.5786494620
     -0.4114108275
     -0.0800794575
      0.3121130731
      0.2654000448
      0.1249561018
     -2.0858966102
     -1.6640216233
     -0.7913076403
      0.2077118546
      0.0252891491
     -0.9394776174
      0.8250215419
      1.2110946881
      0.0499554573
     -1.4709737662
     -0.2189037588
     -0.0487950969
     -1.5393478846
      0.3052338023
     -1.7120851120
      0.0469019362
     -1.3555156531
      1.0410818874
      0.1469491627
     -1.8201846335
      3.3164232449
      1.7489756112
      2.1011742033
     -0.0186388127
     -0.7588649436
      2.3468370889
      0.1049239897
      0.9269387779
      0.7617878038
      1.2014082781
      0.6928101996
      0.0299019166
      2.4215988117
      1.0772621498
      1.3371113304
     -0.5471984849
     -0.7595554930
      1.2569412293
      0.6271878013
     -1.7459207017
      3.1238404574
      2.3816996847
      1.5437189669
     -0.2254128383
     -0.2550010656
      0.6296938036
     -0.8956383445
     -0.1064176198
      0.7198848887
      0.5171383641
      0.4321969040
     -1.1808385940
      1.0937382176
      0.3638164888
      0.8013206615
      0.6388475491
     -1.7861012891
      0.5520922140
     -0.8841205023
      0.0759842202
      0.0011723134
      0.2796030737
     -0.7506863727
     -0.2849922394
      1.2614345299
      1.0026360099
      0.6714118297
      0.0790245360
      0.0211799634
     -0.3539074302
     -0.2353144772
     -0.1464352169
      0.2633278962
      0.8321062182
     -1.1496343796
     -0.2835219751
     -0.8504771710
     -0.9438233787
     -0.6305828038
      0.8735904338
      0.3393578618
      0.5627626442
     -0.3270405395
      0.0961774407
      1.2855561029
      0.0186823137
      0.7872477582
     -0.4018252336
      0.2947935638
      0.7644008356
     -0.5166325376
      0.3898699530
      0.1106414334
      0.3304292139
     -0.3359160675
      0.2725313046
     -0.1851912891
      0.3049628351
     -0.1160840031
      0.1580592185
     -0.0905989458
     -0.2048827980
      0.3350003127
      0.0867857461
     -0.2988691156
     -0.1016453298
      0.0952865839
      0.1137462638
      0.3416170745
     -0.0427743547
     -0.1439722441
      0.2954625536
     -0.1260214380
     -0.0515805444
     -0.1956739903
      0.0897333658
     -0.1266367726
      0.5653006272
     -0.0153078831
      0.2216719525
     -0.0480540326
     -0.0632036408
     -0.0676269567
     -0.0094089712
     -0.4568630122
     -0.2947346629
     -0.0139332791
      0.0629405907
      0.5821717050
      0.4078293904
     -0.3400828630
      0.2215274799
     -0.1384341273
      0.2228609494
     -0.2378701697
     -0.4623693427
     -0.1800496576
     -0.1829414794
     -0.1140010479
      0.3611515250
      1.2199359612
     -0.2012698185
     -0.5118254456
     -0.2239190461
      0.1572056359
      0.9398164424
      1.2675903326
      0.8498326388
     -0.2284674634
     -0.0257461417
     -0.6032306084
      0.2825701075
      0.8756299846
     -0.2478385741
     -0.2048697282
     -0.7971268021
     -0.5910492392
     -0.1808768834
      0.4038075164
      0.1773933425
     -0.6913849401
      0.5829992252
      0.0968445809
      0.3193044543
      0.8144224972
     -1.2288671005
      0.4090199150
     -0.3558884006
      0.3453125777
     -0.6138390515
     -0.7602682552
      0.5191357864
     -0.6277395960
     -0.5158763029
     -1.0696396976
      0.3597012367
      0.5488042265
      0.3309147893
      0.3782269235
      0.0998343876
      0.9373867214
     -0.1461647608
     -0.1585435907
     -0.3900147760
     -0.0354535703
     -0.5469860988
      0.6837941811
     -0.3396772108
     -0.4536086079
      0.6248520890
     -0.3099600483
     -0.6351828661
     -0.5080957127
     -0.6227000112
     -0.5786654084
      0.2651329530
      0.5323912170
      0.6968213951
      0.3132414874
     -0.9928076081
     -1.2915215716
      0.4001471943
      0.0878529551
     -0.6777500036
     -0.0943387629
     -0.5196829788
      0.5760960581
      0.5802189817
     -0.4843798386
      0.7115960220
      0.6049783721
     -0.1949281511
     -1.2781296808
      0.2155912683
     -0.8421671413
     -0.0729706284
      0.3004537248
     -0.3043488684
      0.3248776988
     -0.4198541007
     -1.1148764748
     -0.2950149261
      0.2462070396
     -0.1852434410
     -0.2693319639
     -0.2859579011
     -0.0526671383
      0.0808681595
      0.0272084036
      0.7101110959
      0.1438368612
      0.0022632097
     -0.3097283909
      0.7494099187
      0.6356907300
      0.5338970585
     -0.2977560025
      0.4838819309
      0.1890578037
     -0.6077963539
      0.4337395325
     -0.4108739589
      0.3891814570
     -0.4679149778
     -1.0488836821
     -0.0432957951
     -0.2873154315
      0.5422612586
      0.1651172802
     -0.7851720502
      0.1743076123
      0.1789076657
     -0.2397090928
      0.4925023442
      0.2564096986
      0.7758450282
     -0.6742562640
     -0.0331885517
      0.1312243719
     -1.0410905608
      0.7295839201
      0.4754761552
     -0.4131748269
     -0.6781369264
     -0.1991826232
      0.2207077035
     -0.1637431354
     -0.6654881756
     -0.4861870349
      0.2216159800
      0.2602182249
     -0.1723069273
     -0.5998560608
     -0.2136568420
     -0.0715136517
      1.1707098969
      0.8388324987
      0.5836779188
      0.5947861229
      0.8442728641
      0.4829933925
      0.5873027373
     -0.3858262615
      0.0365060296
     -0.3049456799
     -0.3027075877
     -0.8621741426
     -0.5465367385
     -0.0794444822
     -0.1123628892
      0.3064961213
     -0.4826475903
     -0.0011403620
      0.2799919394
     -0.1351205533
      0.1130541997
      0.5407931179
      0.3488761908
      0.2139247535
      0.4247616927
     -0.6298517829
      0.0497451052
     -0.2795559126
     -0.0710144480
     -0.6981913196
     -0.1272844331
      0.5442663941
      0.2723475068
     -0.2156571144
      0.0768720536
     -0.1222544762
      0.0800121347
     -0.3831218744
      0.4139291822
      0.0595930595
      0.4448888050
      0.5626503849
      0.6569861129
     -0.1286491900
      0.0903802320
     -0.6834175991
      0.0195759868
     -0.0583926468
     -0.8234554341
     -0.2358733466
     -0.4359650496
     -0.2273147922
      0.2384581047
      0.1054296245
      0.5238118396
     -0.0512326044
     -0.3421681653
     -0.5549407630
     -0.2453419045
     -0.3644282555
      0.1640758510
      0.1539754446
      0.0505136406
     -0.1714351176
     -0.3067079994
     -0.2433618516
     -0.1649307124
      0.1247294709
     -0.3722647210
     -0.2922600849
      0.0228006919
     -0.0073697051
     -0.1201206975
     -0.0951021977
      0.5876171216
     -0.0800039079
     -0.0102682650
     -0.1602948230
     -0.0309719078
      0.5000560210
      0.3144387880
     -0.0691777751
      0.6323983238
     -0.2207802959
     -0.3104948413
     -0.2256414603
     -0.3919621771
      0.0705416273
     -0.7719436181
     -0.4302858588
     -0.1420785875
     -0.4239366804
     -0.0732921721
      0.2969216494
      0.0071738998
     -0.1573323476
      0.2901200539
     -0.1196571218
     -0.0689499487
     -0.1219116100
      0.5241303861
     -1.0807652258
     -0.3398856087
     -0.5077316186
     -0.9036598206
      0.4536835956
     -0.1676385422
     -0.3293974519
     -0.2695719653
      0.1139557196
     -0.0963652667
     -0.0473502322
     -0.0303711554
     -0.4073273451
      0.7134354255
     -0.1563828765
      0.1992629829
      0.1071577992
     -0.5031062256
     -0.0343383372
      0.3398718150
      0.2715661440
      0.0900966249
     -0.0879097964
      0.2144350412
      0.4014517159
     -0.3221161599
     -0.4168461283
     -0.5864385238
     -0.1304194703
      0.3218736480
     -0.3711712317
      0.1776740192
     -0.1647395765
     -0.0934905375
     -0.1006891686
     -0.7396968628
      0.3618861345
     -0.2328152852
     -0.3582248070
     -0.3491774628
      0.3977956659
     -0.2017070895
      0.0671578722
      0.5435092918
     -0.5318004900
      0.1776358374
     -0.2417250886
      0.2696078399
     -0.4362926461
     -0.5497964354
     -0.0381159973
     -0.1418591719
      0.0234614333
      0.0332541230
     -0.0095555785
     -0.0567800109
     -0.2916521297
      0.1785433303
     -0.2453341570
      0.2813135751
      0.0481441005
      0.2251181639
     -0.6594510154
      0.4382715393
      0.0987855112
     -0.3427459403
     -0.0333008502
     -0.6400296891
      0.0942139310
      0.2468624633
     -1.0427086924
     -0.4261780713
      0.3088258678
      0.8480624547
     -0.3700084064
      0.0146392314
      0.5504720270
     -0.7140968792
      0.3639136037
     -0.0835178556
     -0.2817908902
     -0.0711070524
     -0.2392787879
     -0.1084008328
      0.5669115432
     -0.2095985673
     -0.0877309590
     -0.8404795732
     -0.0806208060
      0.2634998151
     -0.2056028742
     -0.3396236023
     -0.1504507494
      0.4371503208
     -0.0297139497
      0.1636436539
      0.5893123788
     -0.5078254425
     -0.1563843770
     -0.1030913516
      0.2965122386
      0.5538918997
     -0.7253461594
     -0.1322663710
      0.0660146664
     -0.0283709334
      0.2464897208
     -0.2782952303
     -0.0182468519
      0.1962412080
     -0.4519216484
     -0.3827013196
      0.2754068873
      0.6417214613
      0.0619969295
     -0.0267408216
     -0.0213988675
     -0.0374363167
      0.0455908010
     -0.8334612539
      0.4784331706
      0.1144984469
      0.5553826648
      1.9963892744
      0.5425114762
     -0.7006198392
      0.2653187037
      0.3864902518
     -0.3025534563
     -0.4779084505
      0.0840806245
     -0.5240780670
      0.3663399910
     -1.5062770017
     -0.0092360822
     -0.2432470705
     -0.4550966298
      0.3456016182
     -0.1379338675
     -0.5138447935
     -0.4523075920
      0.3735532409
     -0.0211432313
      0.0703060895
      1.3022910299
     -0.0470952864
      0.6730160645
     -0.2242715771
     -0.0994003735
      0.8511821912
     -0.0972080563
      0.2707241222
      0.5308620777
      1.0839715996
     -0.1128896839
      0.4024910326
      0.1220317568
      0.2615666274
      0.6985885480
     -0.2680288796
     -0.2473738897
     -0.1463038776
     -0.4562868350
     -0.5927999157
      0.7669737034
      0.0865963315
      0.2273728669
     -0.4394808599
      0.5890556890
      0.6933117571
     -0.2472389027
     -0.6671910552
      0.2975942061
      0.5777975657
      0.0356578434
      0.0181974353
     -0.3113884907
     -0.2376165093
      0.4986867613
     -0.3837561585
     -0.1241029813
     -0.4685913243
      0.1765979796
     -0.0528626182
      0.2353057390
      0.0940910763
      0.5092534081
      0.5298624784
     -0.3580210531
     -0.3598829715
     -0.3255008827
     -0.2786973861
     -0.1847041153
     -0.7454423284
      0.5948810081
      0.1935942278
     -0.3134716533
      0.4851774033
      0.2282847205
     -0.0276368923
      0.0576452885
     -0.1031324372
     -0.1500317276
     -0.0845226106
      0.4982865681
      0.2117277522
     -0.0881630249
     -0.0326977611
     -0.4741481038
      0.6611618987
     -0.1472243877
      0.0854748530
     -0.2034770042
      0.6075808566
      0.1279555630
      0.1816215089
      0.1725457319
      0.6041019642
      0.6463620443
     -0.0752056292
     -0.0803617262
     -0.1182121863
     -0.2063324775
     -0.0396669978
      0.1421418152
      0.3525779915
     -0.1347302370
      0.2076559038
      0.2013183492
      0.5002111097
     -0.1467135981
     -0.3475812592
      0.3940909216
      0.1519186155
      0.1276667799
      0.0966091812
      0.5011033322
      0.2204576909
      0.5245402029
      0.2213537694
      0.0286379111
      0.3338987935
     -0.4678179513
      0.2942953912
      0.5662575462
      0.1935494288
      0.0623065700
     -0.3297371517
      0.2745883435
      1.0648792635
     -0.7847333669
      0.0373686061
      0.1467785648
      1.2695443902
     -0.7152564933
     -0.2859798048
      1.1121479555
     -0.7234123055
      0.5350786104
     -0.4552927421
     -0.3709556519
     -0.1378047657
     -0.5109918101
     -0.3392204379
      0.3516649742
     -0.3443304445
      0.0121210636
     -0.6178138392
     -0.0448155141
      0.2473126640
      0.2628768199
      0.0937791305
     -0.2844542274
     -0.0333272125
     -0.3662628174
      0.0344043109
      0.6306869239
     -1.1531520243
     -0.3488755817
     -0.3598933332
      0.4885121793
      0.3926855951
     -1.0051282668
     -0.1956363690
      0.3286047433
      0.3498709870
     -0.1429110852
     -0.1692119336
      0.3627182898
      0.3122323999
     -0.5073281449
     -0.4482867338
      0.1209645401
      0.9487692108
      0.6157352579
      0.1710509696
      0.4170045217
     -0.5107925963
      0.2771487164
     -1.0151750609
      1.7306803446
      0.3601862069
      0.5093508603
      0.7204006638
      0.4332481671
      0.7258042640
      0.5096643878
      0.4558569588
     -0.1729437329
     -0.3132666272
      0.2448922434
      0.0126049376
      1.2002903629
     -0.5184569176
      0.6564564173
     -0.4248701479
     -0.2478981018
      1.0925946708
      0.3732216050
     -0.1327061113
      0.1806314109
      1.0985462651
     -0.2066637210
     -0.4790879929
     -0.3418676185
      0.2869257725
      0.4091497032
     -0.2126256990
     -0.4591764725
     -0.4390521645
      0.5537399672
     -0.4525146780
      0.2339538074
     -0.6793276383
      0.0080352923
     -0.0124746696
     -0.1404321809
      0.4352171806
     -0.1232512780
      0.1706607729
     -0.3247666386
      0.3167407023
     -0.4644850922
     -0.8793836796
      0.0636052864
     -0.3960297290
      0.6934032596
     -0.3762363102
     -0.7075837001
     -0.0464594181
      0.4489683181
     -0.2393822977
     -0.3301208042
     -0.4665403209
     -0.0593608422
     -0.5447776806
     -0.2309721457
      0.6724739652
     -0.2742209512
      0.3763763767
      0.2326339602
     -0.7770747000
      0.1017029478
     -0.5614006705
      0.1084877475
     -0.0054755429
      1.3127974658
     -0.0121713748
     -0.5128634561
     -1.0407351304
     -0.5025033485
      1.0213850874
      0.5752896232
     -0.0008431466
     -0.4975424525
      0.3963395781
     -0.3431939409
      0.5516933175
      0.5392984910
      0.1132956948
      0.2100570226
     -0.2084636713
      0.5601337920
     -0.2122382141
     -0.2828509319
      0.1239791385
      0.1504694415
      0.0739521213
     -0.2525777023
     -0.5861464549
     -0.1192849064
     -0.0192799222
      0.0066282413
      0.4363396933
     -0.2034732912
      0.0409457741
     -0.2377872230
     -0.2367619363
      0.5364562830
     -0.3627903808
     -0.3816241686
     -0.4678181029
      0.3918833713
      0.2478421178
     -0.1384782140
      0.2612737420
      0.0113808452
     -0.0059776731
     -0.0728369675
     -0.0847557163
      0.1788776163
      0.4939307594
     -0.6157570537
     -0.1254287473
     -0.0989699563
      0.0467490761
     -0.0338067406
      0.0794892214
      0.6426881929
      0.0558126130
     -0.4412737715
     -0.5745812927
     -0.0346310841
     -0.1970593670
     -0.4535712037
     -0.2786328593
     -0.5754860453
      0.0808568918
      0.1722588475
     -0.1706542903
      0.8550844319
      0.5648724529
     -0.6406850292
      0.9059785245
     -0.6632972402
      0.9473297545
      0.4567611949
     -1.0728562164
     -0.2266062155
     -0.4541644868
     -0.3056919276
     -0.6045485048
     -0.6060843131
      0.0018086954
     -0.7656585497
     -0.7629569065
     -0.2593467023
     -0.1973742517
      0.8842981188
      0.0149509904
      0.4654261184
      0.4214131363
     -0.4475219627
     -0.1436397418
      0.2478751530
      0.2153940943
     -0.2326982795
     -0.6223417187
     -0.6849569841
     -0.7073333497
      0.9532423858
     -0.3629612279
     -0.0807410868
      0.8715746311
     -0.7375788223
     -0.4205893702
     -0.7870673940
      0.4864156638
     -0.1226691927
     -0.5505652627
      0.1414052868
      0.1819606716
     -0.2334939941
     -0.5658423516
     -0.0436141321
      0.3215394380
     -0.3568431573
     -0.3946105354
     -0.5413242130
      0.0475642103
     -0.1552092869
     -0.6960073221
     -0.4138946398
     -0.3170360032
     -0.7070243042
     -0.3467885961
      0.3286438805
      0.1269142668
      0.1426036633
     -0.4829193502
     -0.0243219962
      0.0414118209
     -0.2507700172
     -0.5662230029
      0.2725805978
      0.4988606648
     -0.5361986755
     -0.1163639480
     -0.0474564847
     -0.2516959114
      0.4470380127
     -0.0732459661
     -0.4746969994
      0.4508209477
     -0.5821799908
     -0.4230893488
     -0.1964334403
      0.0880043267
     -0.1246971291
     -0.4250654720
      0.5510668053
      0.3229462145
     -0.2483313882
     -0.6641738629
      0.2248880429
      0.5438039862
     -0.2445247400
      0.1511923911
     -0.1469022041
     -0.1722214419
     -0.2875646114
     -0.2085299548
      0.1255585672
      0.5297397148
     -0.6762114068
     -0.2957480851
     -0.0928589774
     -0.0571810298
      0.0088604423
     -0.5276264330
     -0.0874491619
      0.1320744593
      0.1124879557
     -0.4946203033
     -0.1307607463
      0.3453203681
      0.3832824797
      0.1128503540
      0.1339385683
     -0.2992514580
     -0.4116670147
     -0.5469940259
     -0.1719505244
     -0.3810130561
     -0.8829568004
     -0.7573661915
      0.2645778020
      0.0949041005
     -0.1768950745
     -0.4159678580
     -0.5658501817
     -0.2813611214
      0.1375338996
     -0.5751102784
      0.7327996917
     -0.1574589926
     -0.4609875445
      0.5247057339
      0.1840856385
     -0.2534341079
      0.4206654428
      0.0779879142
     -0.1400223018
      0.2811463176
     -0.6322776280
     -0.6051060513
     -0.4539223161
      0.4910180267
     -0.2062815903
     -0.3709129601
      0.1773648301
      0.3543213179
     -0.4785307380
     -0.6382086580
     -0.0092220812
      0.0962610147
     -0.5949124433
      0.2406054713
      0.1729410416
      0.0409752622
     -0.2705005748
     -0.3674592495
     -0.0299484186
      0.3764037580
     -0.1712856149
      0.1314474277
      0.0489949927
     -0.0388804741
      0.0522621149
     -0.2886129966
     -0.2990734898
      0.0219339193
      0.2259806601
     -0.2702916065
     -0.3030060680
     -0.0631322345
      0.3091435991
     -0.1086483885
      0.1116843163
     -0.6093902981
      0.3809875792
      0.1025383714
     -0.1839205949
      0.2250588354
     -0.5144006656
     -1.1589832323
      0.0856299499
     -0.1987741295
      0.3650753351
     -0.2789629874
     -0.1959906241
     -0.5214869052
      0.7413096333
     -0.2321227654
     -0.1427297559
     -0.1051163130
      0.0497818283
      0.4394599889
      0.1140216988
      0.1932289318
      0.0420424741
      0.6679031415
     -0.3961433546
      0.4467612022
     -0.0800030569
      0.3406107226
     -0.1866572032
      0.4983227287
     -0.2535968542
      0.0343566671
     -0.1946756838
     -0.3442597049
      0.3863374791
     -0.0119307003
      0.2713564781
      0.0203801660
     -0.0611469804
     -0.1931273422
     -0.2077818931
      0.4005423430
      0.2101127981
      0.2740077051
     -0.2280268272
      0.5669744844
     -0.4236182510
     -0.0091844090
      0.0714654984
     -0.0922979569
     -0.3051693299
      0.0508189085
      0.1533393542
     -0.6060506155
      0.1655136505
      0.1250558133
     -0.3684862480
      0.0047752083
      0.2028559792
     -0.1543468050
      0.0978341252
     -0.0401229645
     -0.5973395303
      0.5496095198
     -0.3078773808
      0.5571022313
      0.0362942065
      0.0383535941
     -0.8624485483
     -0.2889517968
     -0.0197466848
      0.9873957897
      0.1789474669
     -0.4707308501
     -0.5073919001
     -0.2412647291
      0.5500409064
     -0.1722301150
      0.0152735233
     -0.7557001423
     -0.6876085519
      0.0272798482
     -0.2890059806
     -0.0303917452
     -0.4594097523
      0.2333060430
      0.3179973470
     -0.1274194418
     -0.0654660930
     -0.4148767688
      0.1411600263
      0.5151897700
      0.0152007696
      0.1716180679
     -0.1455658515
     -0.4638774430
      0.1177008639
     -0.0059543019
      0.2264684582
      0.2640722349
     -0.4747371758
      0.4097192927
     -0.1507729373
      0.5933201152
     -0.0280139242
     -0.1861972321
      0.1590321328
     -0.3054437170
     -0.0271052736
     -0.1021593150
      0.0556964503
     -0.0558992941
     -0.2993907348
     -0.5658050352
      0.5966257026
      0.3042421014
      0.0077996435
     -0.2689622790
      0.0236976147
     -0.3320487801
     -0.8166070863
      0.8044358518
      0.3534094460
     -1.0932364595
      0.5357600718
     -0.3829918729
      0.1113208229
     -0.0199683741
     -0.2757531007
      0.5055033534
      0.5380097105
     -0.7845935512
      0.4690959758
      0.5783150052
     -0.7079812622
      0.5181383430
     -0.4228089045
     -0.2874328341
      0.8735939610
     -0.0713274946
      0.0300758456
     -0.1400193212
      0.4156822868
      0.8246442282
     -0.4185152450
     -0.2623321120
     -0.2880278372
      0.0075127095
     -0.9747122566
      0.3229469862
      0.1477764619
      0.3280124326
      0.0895172092
     -0.6509410405
     -0.0099467524
      0.0150960998
     -0.0595957922
     -0.2975808017
      0.5083082121
     -0.3477494781
     -0.2028253107
      0.6359557078
      0.3402334824
      0.1192479338
     -0.2753553211
     -0.1628613325
     -0.1798944332
      0.5282640074
      0.1686379348
     -0.5145529217
      0.5034090371
      0.3241704804
      0.0128369826
     -0.3016685100
     -0.2724954077
      0.3136135378
     -0.4107765010
      0.7771089089
     -0.2541734645
      0.0070261641
      0.1559699489
      0.3161634848
      0.1139688178
     -0.1734074583
     -0.3260975413
      0.3258081166
      0.6289348019
      0.6987727739
      0.2573359357
     -0.3975434247
      0.6685454449
     -0.2779922538
     -0.8090737861
     -0.0823501520
      0.2462868935
      0.2905876980
     -0.1193731241
      0.4855009243
      1.0147970442
     -0.1763967828
      0.8868076064
      0.8829876861
     -0.4806407877
      0.1000133808
     -0.2228604031
     -0.2274243341
      0.2375980652
      0.9878544901
      0.0806823852
     -0.2028194805
      0.0684411287
      0.6468172114
     -0.5380770693
     -0.2554323705
      0.1939414774
      0.8594831486
      0.8013143316
      0.1218264780
      0.7170035867
     -0.4120459123
      0.8152451427
      0.3979858869
      0.1389388714
      0.0792043558
      1.1236607423
     -0.3714752513
      0.2043989357
      0.5369024653
      0.3901498914
     -0.2068313652
     -0.0405410947
      1.0919223563
     -0.3825973216
      0.8572124702
     -0.5562254376
      0.0280282895
      0.7610658535
     -0.7140559874
      0.0572721350
      0.4305905528
      0.3550294835
     -0.1442493551
      0.9295851673
     -0.3176482058
      0.8312432857
      1.7230321698
     -0.6083209515
      0.8884654402
     -0.9972495156
      1.0295961436
     -0.0889698577
     -0.1050430124
      1.2468387409
      0.2415138128
     -0.3066977804
     -0.9274276927
      0.0992689865
     -0.0507441557
     -0.1887797749
      0.4311716796
      0.0246529055
      0.4083394089
      0.5039786443
     -0.2187763271
      0.6220250137
     -0.1022119232
     -0.2090201177
      1.4657466155
      0.0403281596
      0.8866197499
      0.0450083516
      0.1040453935
      0.0116540445
      0.2915667777
     -0.1950907856
     -0.4958688939
      0.1604042868
      0.0526352353
     -0.0921700324
      0.3215305523
      0.8616389952
     -0.0424712151
      0.3689594769
     -0.0504095128
      0.2769572840
     -0.8033368588
      0.1164028465
     -0.0927590715
     -0.1639046165
     -0.3925105799
      0.0932984604
      0.6078779058
     -0.1487343869
      0.5696778613
     -0.1735788265
     -0.1484425487
      0.2282932383
      0.2747468230
     -0.2217367563
      0.0746569094
      0.1334396672
      0.3512213868
     -0.5831294151
      0.1161392810
     -0.0684988562
     -0.8732842729
     -0.3056715330
      0.2209103538
     -0.2032593299
     -0.2549880262
     -0.1260906773
      0.1767938464
     -0.0548928310
     -0.4138297836
     -0.7098568442
      0.0396967695
      0.0681275139
      0.3372088142
      0.1423215499
      0.1337884672
      0.5950962724
      0.2687282185
      0.0795504322
     -0.1426275263
     -0.0318361019
      0.0402041831
     -0.3409422715
     -0.5880266459
      0.0901303407
      0.2297051662
     -0.5166686043
      0.2461244984
     -0.0445928694
     -0.0407061393
      0.3376884542
      0.2195407313
     -0.1510628844
     -0.0630343910
     -0.2894461028
     -0.0187772736
      0.7007065379
     -0.1417413922
     -0.0794211564
     -0.2658088843
      0.5623633109
      0.1640734456
     -0.1948400197
      0.5827743983
     -0.5111069565
      0.6204509188
     -0.0265315132
      0.0953207057
      0.7050420590
     -0.1883359856
      0.2197132406
     -0.1347460444
     -0.4858074285
      0.2473712542
      0.2270696774
     -0.3581584392
      0.3943914631
      0.5209573382
      0.3405458481
      0.0510716356
     -0.7794677147
     -0.6655525889
     -0.1280923059
      0.2273324775
     -0.1697241766
     -0.4389072767
      0.4971830508
      0.3801672857
     -0.7893611821
      0.1674446594
     -0.0826490062
      0.1219339367
      0.1377555865
     -0.1435848102
      0.5962138080
     -0.1499240066
     -0.4337239447
     -0.4308420863
     -0.3344973264
     -0.2420301201
     -0.0359877758
     -0.1891154110
     -0.1881144573
     -0.0862397804
     -0.1269293541
     -0.0867169925
      0.4180279254
     -0.2962292138
     -0.1929817344
     -0.3428096232
      0.0336032346
     -0.8429293806
     -0.6707609889
     -0.6036721350
      0.6627825599
     -0.5730353609
     -0.5915575407
      0.2147597645
     -0.1822404500
     -0.3812624693
     -0.0568645699
      0.0159610129
     -0.3981324762
     -0.6455695152
      0.4041829692
      0.2110995702
      0.1346345196
     -0.7281330539
      0.5869742745
      0.2162333940
     -0.2659595629
     -0.3453445142
      0.2088332816
      0.0802579992
     -0.0901792575
     -0.1479630081
     -0.1709783847
     -0.0024202251
     -0.3604252508
      1.1665970787
     -0.1131095126
      0.1168990814
     -0.2286402485
     -0.2791154613
      0.0189002249
     -0.2187674878
     -0.8638965269
      0.9241043602
      0.2223406497
     -0.9538657469
     -0.1697818348
     -0.7806236724
      0.1247042962
      0.0913512698
     -0.3326463433
     -0.4369954903
     -0.0568355406
      0.4198852901
      0.1457889970
     -0.6893447615
      0.2017235965
      0.2110588281
      0.0090984852
     -0.1658721524
      0.5990241576
     -0.2200993201
     -0.3432157842
     -0.1199352085
     -0.0230144320
      0.3319034517
     -0.4143221331
     -0.4063671723
      0.0829370571
      0.1743033091
     -0.0198659215
     -0.0557630071
      0.3768986545
     -0.0872807847
      0.2912677833
      0.1592412322
      0.0998306896
      0.1568315661
     -0.0566987058
     -0.2786931502
     -0.3823152813
      0.3209227569
      0.2042682172
      0.1191503757
      0.0321649591
     -0.2333258041
     -0.1284664647
     -0.1755873648
     -0.0158631810
     -0.2786405730
      0.4461214181
     -0.0104928663
      0.0483740138
     -0.0542504540
     -0.3916092177
     -0.3350396907
     -0.0541381285
     -0.4013722076
      0.0719630132
     -0.3259775486
      0.0202900763
     -0.2267948503
      0.3334468116
     -0.3263757457
     -0.6555262807
     -0.1732296466
      0.2564822879
      0.6414739749
      0.1108974140
     -0.0758205781
     -0.0689150249
      0.5479493544
      0.1675993268
      0.1261582294
     -0.0242570770
      0.1932932016
      0.4034035226
      0.0393338289
     -0.0950306801
      0.0724829539
     -0.1185559943
      0.0461045039
     -0.1364418559
     -0.2125333020
      0.0573191821
      0.0712686813
      0.1411956145
      0.0968035398
      0.2375212010
      0.4664033389
     -0.0186291495
      0.2930488507
      0.0008812230
      0.2213365277
      0.2188591828
      0.4253936692
      0.3206725084
      0.3848238735
     -0.7474520944
      0.1925958650
     -0.0656192906
      0.3543179725
      0.2645208968
      0.0889508382
     -0.0035432354
      0.2888737585
      0.2749881785
      0.0017796058
     -0.0010843145
      0.2220554562
     -0.3195572443
      0.2224162661
     -0.4307863580
     -0.3686178458
      0.3913059497
      0.0586355752
      0.1632790461
      0.5962346477
      0.0420298060
     -0.2042591105
      0.3142456512
     -0.1108014590
     -0.5104150697
      0.5668583107
     -0.2799118236
     -0.0181258086
     -0.0080792218
     -0.2800108802
      0.4810006951
     -0.3953203919
     -0.2387194560
      0.8904924175
     -0.1714745552
      0.0590659741
      0.0858921779
      0.1482362400
     -0.0284908711
      0.3508179972
     -0.2215244878
     -0.4007494838
      0.2633572000
     -0.1595753729
      0.0568552206
     -0.0585565986
     -0.2807803352
      0.2368375242
      0.1306694431
     -0.0847653596
      0.1215165267
      0.1854631961
     -0.1499681681
     -0.3116384236
     -0.1639298270
      0.4049237177
      0.2000255058
      0.3762927066
     -0.0929084163
     -0.0341700239
      0.0747330388
      0.3464755060
      0.3412749364
     -0.5789630570
      0.0660737986
     -0.6155532200
     -0.5990196552
      0.2512596942
      0.3302848403
     -0.4885928813
      0.0063127148
      0.0798815464
      0.0831739844
     -0.3645160883
     -0.0428502397
      0.2304085860
     -0.3370847351
     -0.2706898420
     -0.3756783309
      0.0236979667
      0.3453351795
     -0.4174480545
      0.4492857822
     -0.0812231307
      0.0649358939
     -0.3147001890
      0.2752240854
      0.1906611921
      0.3494060224
      0.2758805621
     -0.0791802457
     -0.1877945707
     -0.1316233636
     -0.3784873596
      0.1889784168
     -0.2620547792
     -0.1546385853
     -0.3075205305
      0.0680275460
      0.0287955269
      0.6405365676
     -0.0872444132
     -0.2530794993
     -0.3313386266
      0.4649078959
     -0.0923125214
     -0.0173815111
      0.1350763634
     -0.0342928069
      0.0804315500
     -0.0294846519
     -0.3307302627
     -0.1115075246
      0.0909947585
     -0.2913267673
      0.0853143240
     -0.3519166985
     -0.3791650872
      0.1837984374
     -0.0419018094
      0.0648794961
     -0.6688251284
     -0.0039053456
      0.0708549923
     -0.0726995456
     -0.2548071712
     -0.1636882301
     -0.0874820648
     -0.0974321991
      0.3884369060
      0.2971056566
     -0.5869247750
      0.0748774164
     -0.1518045305
      0.0076805024
     -0.4675989298
      0.5536882150
     -0.4771674765
      0.8839642112
      0.6656280722
      0.1781203922
      0.4132996943
     -0.3068418755
      0.3162145880
      0.3872576863
     -0.0897067006
      0.8240864686
      0.3327429600
      0.0000272399
     -0.1606906858
     -0.2701237315
      0.2617669407
     -0.4316780248
     -0.5553352883
     -0.5966271484
     -0.3577118410
     -0.0915666611
     -0.1316461396
      0.3449475991
      0.1053966687
      0.3434733117
     -0.4182110827
      0.0626247528
      0.3692869194
      0.5344069335
     -0.2311999289
      0.1539612621
      0.1064059645
     -0.1371528060
      0.2321480997
     -0.2578867195
     -0.2463168467
     -0.2572383207
      0.0903009951
     -0.3213097559
     -0.2939881570
     -0.3028860150
     -0.0643824835
     -0.1744796982
     -0.3194508537
      0.6508144609
      0.0568571686
      0.0783498839
     -0.0417636543
      0.2724410786
     -0.3760895816
     -0.0597188286
     -0.6429904489
      0.1541365889
      0.3500281367
     -0.0476751989
      0.1155535706
     -0.0683738269
     -0.3190022469
     -0.0191715633
     -1.4157860438
     -0.1963085733
      0.2690631122
      0.4021577786
     -0.1476569521
     -1.0666343632
     -0.1221129626
      0.4679996497
     -0.3640913183
     -1.4300102566
      0.7918185047
      0.8848860551
     -1.5074673562
      0.1652103192
     -0.9974260237
      0.2957382492
     -0.2980975776
     -1.4849723838
      0.4799554381
      0.8259020725
     -0.4178968207
     -0.3044084568
      0.9490197413
      0.6790413025
     -0.0874249926
     -0.1205177091
      0.3765544706
      0.0543967770
      0.1587290673
      0.0484929856
      0.4265428548
      0.3102071307
      0.0545708795
      0.3123661090
      0.0118539645
     -0.5315879829
     -0.6478814965
     -0.9273021042
     -0.1857663814
     -0.4145157643
     -0.7742064106
     -0.4654375037
      0.0075783066
      0.6051740412
     -0.8768915190
      0.8968906314
      0.6724580012
      0.3010196043
      0.5850449045
     -0.6258745024
      0.4186319947
      0.3793336812
      0.7804352848
     -0.0350953343
      0.2908841939
     -1.2309876875
     -0.4285917333
      0.0620735530
      0.0774457628
      0.3053840492
     -0.7035735817
      1.0253593657
     -0.1734992374
      0.1494262953
     -0.1488755753
     -0.4814392952
     -0.1754947652
      0.6675412487
      0.2770051655
     -0.3409042865
     -0.4967698565
     -0.3208478366
     -0.3108746033
     -1.3529023716
      0.2082026361
      1.3499704500
      0.2999009594
     -0.7169888326
      0.6159893581
     -0.4780771737
     -0.6221946556
      0.1406201766
      0.4606174054
      0.5051791604
      0.2279826969
     -0.0498072787
     -0.3635232077
     -0.5804229941
      0.4300887741
      0.1205475314
     -0.6674390187
     -0.3535827774
      0.2269577301
      0.1225088438
      0.6088238624
      0.2897488886
     -0.5429297612
     -0.0492765524
     -0.0011422592
      0.4663453774
     -0.8418636034
      0.0105918582
     -0.8381767661
      0.3222056901
     -0.6085824740
     -0.0027751356
     -0.2699597088
     -0.0191879944
      0.0427166863
     -0.2018022879
     -0.0908313374
     -0.0507774763
     -0.4939024622
      1.0558788801
      0.3083034336
     -0.1386307208
     -0.8021839630
     -0.0444021964
      0.2115622674
     -1.0393711128
      0.1339382198
     -0.6106910957
      0.4377385005
      1.6411998746
      0.2924785247
     -0.8481739680
      0.3923670300
      0.4223154107
     -0.6187339136
     -1.1194937299
     -0.4820194141
     -0.1975877292
      0.6813293877
     -0.6832688381
      0.1534820104
     -0.9063495982
     -0.8281226149
     -0.2647485006
      0.4729359702
      1.0294769056
      0.0648751980
     -0.6886734096
      0.5904806958
      1.0114002806
     -0.6378279746
     -0.6886143959
      0.4526387261
      0.1710459805
      0.0820990573
      0.0783411039
      0.1067484815
     -0.0275290557
      0.6916288871
     -0.3040285511
     -0.0040054542
      1.1577866602
      0.0755186294
     -0.6731920166
      0.4940917450
      0.5794535440
      0.1908547864
      0.5971901647
     -0.3661133398
     -0.3650859269
     -0.6616190357
     -0.5117795789
     -0.6825302508
     -0.4322327993
      1.7546128377
     -0.2457959814
     -0.4874259436
      0.9897966494
      0.0054551487
     -0.5241653399
     -0.2462882825
     -0.2136839935
     -0.0438819618
     -0.8403211785
     -0.7641994514
      0.8430472123
      0.3785884358
     -0.1161745859
     -0.6820026283
      1.0966976862
     -0.5157400925
     -0.1732795014
      0.1225276904
     -0.1265581286
     -0.6011957993
      0.1717154632
      1.3154220965
      0.1269424041
     -1.2107015427
      0.5569032228
      0.2494357301
      1.4340675890
      0.6981737777
     -0.0469438131
      0.4850297442
      0.7873614025
      0.6962258759
      0.2625433780
      0.8666128742
     -0.0556734452
     -0.2983694789
      0.3165567114
      0.4774340816
      0.5326971312
      0.4804146389
      0.0210926396
      0.0169801283
     -0.2543491697
     -0.1984044996
      1.0532283292
     -0.2525906315
      0.4269478128
      0.2070383937
      1.2582177428
      0.8122655039
     -0.9033098222
     -0.8532084707
      1.0178347691
      0.7079294476
      0.7604126326
      0.4887575121
     -0.4881456236
     -0.0747258183
      0.2267073100
     -0.4522854810
     -0.4910662415
     -0.7496794892
     -0.1267946600
      0.3555578822
      0.0684080591
     -0.0385477113
      0.5115568255
      0.4382542537
     -0.5704958351
      0.3584391774
     -0.2231663886
      0.1026170527
      0.2552400409
      0.1812315697
      0.2285784893
     -0.4487275204
      0.2284113366
     -0.3312407297
      0.5308728410
      0.0799041320
      0.1415142340
     -0.3895546047
      0.4570489244
     -0.4919368447
      0.1124030237
      0.4122850224
      0.6876805334
      1.0515449588
     -0.1279823722
      0.2052531502
     -0.0587957830
      0.0864366598
     -1.0583489244
      0.5193187693
     -0.2949117564
     -0.0527174644
      0.2021646319
      0.8804597140
      0.0036588422
     -0.7005554325
      0.9401610228
      0.2012883344
      0.4566375133
     -0.4594289609
     -0.1664471590
     -0.1804636841
      0.7680966642
      0.3319631096
     -0.6211312971
      0.4538030201
     -0.5846282725
      0.1013956789
      1.1185424928
      0.1622626990
     -0.1996865511
     -0.2500070088
     -0.3071424474
     -0.4505382368
     -0.3755815583
     -0.0921028807
     -0.5842506827
     -0.3644833404
     -0.2463678935
      0.4385668611
      0.6663134946
      0.1727588490
     -0.4192434267
     -0.8194839834
     -1.0231820371
     -0.1640455216
     -0.6361494736
     -0.0674942681
     -0.4200911574
      0.3286772664
     -0.0840983560
     -0.1383530248
     -0.1679104523
      0.5235218200
      0.3966580418
      0.2803164518
     -0.4091841594
      0.4183672694
     -0.2509156187
      0.5561736090
      0.4247119899
     -0.1716735520
      0.5133331017
     -0.0569857932
      0.7211721050
     -0.3011676356
      0.4166834914
     -0.2057211671
      0.3681449433
     -0.4770039992
      0.4030295244
      0.5854365337
      0.2358958234
      0.2216842042
      0.3162935160
      0.4911176847
      0.0463980517
      0.4181821991
      0.0393813706
      0.0882081960
     -0.4328711868
     -0.5295174223
      0.6900116075
      0.1691102225
      0.6289028836
     -0.3221505473
     -0.0518068247
      0.7022571618
      0.2648999453
     -0.3044126152
      0.1638349147
      0.4326409235
     -0.0586169770
     -0.0553317176
      0.0697099526
      0.6494974506
      0.2071883480
      0.2111417119
     -0.2871302298
      0.3979809295
     -0.9239160986
      0.4141393793
      1.1061750239
      0.2667191527
     -0.3198481166
      0.2326117002
     -0.2916899496
      0.3785809871
     -0.2735558905
      0.1837599441
      0.3362992037
     -0.5532222081
     -0.7668755150
     -0.6309667276
     -0.5906264068
     -0.3257337596
     -0.2594472904
     -0.3756958710
     -0.2809709526
      0.1614596935
     -0.0811846016
     -0.1782068590
     -0.7479882292
     -0.8253551892
     -0.6131551280
      0.1618881243
      0.8984798545
     -0.1137857012
      0.2952297926
      0.0767992854
      0.5257621419
      0.0324477810
      0.0414264700
     -0.1915164755
      0.0176800306
     -0.2183592677
      0.1948998749
      0.1722813935
     -1.6514942473
     -0.1398993638
      0.1421595871
      0.4111891674
      0.3600715087
     -0.5660818793
      0.7142769296
     -0.2895097236
      0.3786083846
      0.8371181703
     -0.3623059239
     -0.1001464810
      0.3644608852
      0.2168268104
      0.1883765443
      0.9097515803
     -0.0206733836
      0.3269948671
      1.4401762783
      1.0958569063
     -0.0841441297
     -0.0443467677
      0.3583663655
     -0.3386656736
     -0.5976897955
      0.4784104124
     -0.3114880341
     -0.8280002031
      0.5629147407
      0.0655003006
      0.5690842943
      2.3264531882
     -0.0166994825
      0.9543903023
      1.2686000010
     -1.2945146374
     -0.8570840781
      0.6201450543
      0.6093112572
      0.1623881889
     -0.8008575334
     -0.9847242288
     -0.4545047723
      0.0475020814
      0.2072665188
      1.7075668201
      0.6184796215
      1.5750416725
     -1.1409514489
      0.1154230486
      0.0850904041
     -0.0473057849
     -0.0930989568
     -0.1464332544
      0.0825554045
     -0.0543866176
     -0.0921045630
     -0.1060685852
     -0.0489552757
     -0.1381119557
      0.1939524848
     -0.0342903191
     -0.0231042009
      0.0718481968
     -0.0828320122
     -0.0728501885
      0.0306628826
      0.0486053813
     -0.0867018862
      0.0441651841
