     -0.2990596476
      0.5021030200
     -0.0769338744
     -1.1006272074
      0.2955859359
      1.7429579447
     -1.6013368538
      0.2350663304
      0.5352038521
      0.0051334333
     -0.7106693151
      0.4538507534
     -0.4542047137
     -0.5550684426
     -0.8356584914
     -0.4475071011
      0.2001479567
     -0.2239660753
     -0.6610328561
      0.2625465187
     -0.3155773331
      0.5786399697
      0.7607927986
      0.4193148590
     -0.1257974218
      0.1880938563
     -0.0668596834
      0.3641916620
      0.3588227170
     -0.0069286703
     -0.2885736027
      0.2080981854
     -0.2294743530
      0.4294668214
      0.3000136940
     -1.1021930176
     -0.0598049295
     -0.9275330020
     -0.5061489679
      0.2200429055
     -0.7399666306
     -0.5449313700
      1.9146135221
     -0.3569905928
      1.3315145413
     -2.0584606405
      1.9945313816
      0.7454303694
      0.4974309815
     -0.7136357515
     -0.5034751482
      0.7421435237
      0.7969405551
      1.4058458307
     -0.4648651669
     -0.7379223208
     -0.1149413722
      0.7152571507
      0.7437076836
     -0.8566487359
     -0.5134043849
      0.0614010684
      0.3033020681
     -0.0451635752
      1.7501577919
     -0.2109266112
     -0.2122834047
     -0.4098957381
      0.4329722685
      0.0987872514
      0.6048648473
      0.0028772479
      0.4650859771
      0.6803414885
      0.2284550072
     -0.5425808445
     -0.2312339940
      0.1360586749
      1.1955845491
      0.0627668295
     -0.4351964586
     -0.1615884729
     -0.0389734208
     -0.5756864003
      0.4294588992
     -1.7942642239
      1.2430900486
      0.3800985042
      0.4036867530
      0.6933217092
      0.1495089295
      0.8120698780
     -0.3249350702
      0.9331545264
     -0.1209522584
     -0.2823715516
     -0.1200699949
      0.2991330216
     -0.5525630958
     -0.2592587722
      0.2914260597
     -0.0680586533
     -0.2071257276
      0.1026495595
     -0.4167535001
     -1.7691813442
      1.0720275232
     -0.3643781098
      0.0335537525
     -0.1837991151
     -0.0079941288
      0.4720702943
     -0.8049639524
      0.3463616857
      0.3296090184
      0.4458705604
     -0.3192182894
      0.9262701015
     -1.6809513755
     -0.5272726640
     -0.5291699236
      0.0117843005
     -0.4315843484
     -0.2691383726
     -0.6134144764
     -0.6256410456
     -1.0829764999
      0.9905803344
      0.6114822277
      0.2242610790
      0.3526887662
     -0.6469569060
     -0.0620504231
     -0.8509070020
     -0.3349474361
     -0.3482851845
     -0.7361723998
      0.3733782907
     -0.7985574710
      0.1657862799
     -0.3317397636
     -0.0898616150
      0.6008222850
      0.5096695140
     -0.6868790765
     -1.1222864542
     -0.2183594321
      0.4339494336
     -0.7024403373
      0.1185355692
     -0.4281720597
     -0.3349897567
     -0.8189703291
      0.8369320825
     -0.3088080143
     -0.7680149012
     -0.2152297048
     -0.6258666187
     -0.1196699798
      0.0578005360
     -0.1033801050
     -0.1938105052
     -0.1539747242
     -0.1659008224
      0.3082219407
     -0.4599407312
     -0.1740958912
      0.1449071123
     -0.3595320769
     -0.0518021212
     -0.4143528666
      0.1273222747
     -0.2981417855
      0.4199954881
      0.0160408440
     -0.3890438108
     -0.0776922147
     -0.4277620700
      0.2018084906
     -0.0214311543
     -0.1545136512
     -0.0734586530
      0.0020603144
      0.1068377840
      0.1521976874
     -0.2913103095
     -0.0703715039
     -0.4488331581
      0.0692607766
      0.0715751892
     -0.2594284406
      0.1498519902
     -0.0935618529
      0.0191372151
     -0.3473961090
     -0.1412435686
     -0.0117417701
     -1.0935447365
      0.1756929938
      0.0458977426
     -1.3079147941
      0.5926018427
      0.2683276265
      0.5021524094
      0.3399749115
      1.1096250133
     -0.0704621591
     -0.1571178870
      0.4168129733
     -0.6078354324
      0.9409899873
     -0.6674337728
      0.7038441635
      0.8743833113
     -0.0037514915
      1.1746601740
     -0.1439018183
      0.3062124843
      0.9850394726
     -0.6172352680
     -0.9181448050
     -1.1997316313
     -0.0851305360
      0.9072755908
     -0.6833356014
      0.1764743941
     -0.0691979118
     -0.3317444133
     -0.3333937633
     -0.1370597950
      0.7560167420
     -0.3314745518
      0.4722483622
     -0.8095928874
      0.6452282524
      0.0543763210
      0.6452138820
     -0.6436186984
      0.1982921874
      0.3522402791
     -0.3428460078
     -0.3231582400
      0.6476484953
      0.0985452686
      0.6036099144
      0.6648492490
     -0.2356633547
     -0.0954714048
      0.1854732702
     -1.3539367845
     -0.4279433651
     -1.0340591663
      0.7137451112
      0.1135481143
     -1.0203976027
     -0.1363206564
      0.6209535210
     -0.9425594722
      0.8093518019
     -0.5273305107
      0.3921165015
      0.4625328273
     -0.5071372935
     -0.2709788187
     -0.2439713629
     -0.0809069287
     -0.1190173632
      0.2784030874
     -0.4956101377
      1.3575688155
     -0.7323595603
      0.8040880053
     -0.5239972485
     -0.3619340667
      0.5513011406
      0.4827941191
      0.0846591738
     -0.7070375590
     -1.0301525972
      0.3979011864
     -0.1221707673
      0.7865435891
      0.3470736944
     -0.8379412582
     -0.2093922115
     -0.6203640164
      0.3758523568
      0.7163093273
      0.4159232097
     -0.2645423438
     -0.3009731890
      0.8033871669
     -0.4631392121
     -0.4131757130
     -0.3660143264
      0.3985131214
      0.0994802490
     -0.3675612187
     -0.9383437063
      0.1352360509
      0.1614374317
      0.4169274696
      0.7213534877
     -0.6743853910
      0.0852273467
     -0.5628151593
      0.1237828642
     -0.5716250928
     -0.2699711043
      0.9788860786
      0.3206255017
      1.3408915227
     -0.3732161544
     -0.0241032158
     -0.7158424848
     -0.0973552493
     -0.1592746121
      0.1490092986
     -0.0911740825
      0.4098926685
      1.1292534792
      0.2137308123
      0.3280066705
     -0.4942979450
     -0.4639162450
      0.4597637463
     -0.4495667385
     -0.2526519515
      0.1035473909
      0.2560385144
     -0.0334557673
      0.9799401211
      0.0937006342
     -0.3794481827
      0.1696934985
     -0.3294466848
      0.1504268438
     -0.7660721985
      0.3070229861
      0.2687664559
     -0.1972247543
      0.1663853668
      1.0965427487
      0.0365021070
      0.4278500136
     -0.5244935327
      1.2011952238
     -0.1354514633
     -0.2067385265
     -0.6273631069
     -0.0452444445
      0.1934133530
     -0.3610097667
      0.0699249200
      0.1248704388
      0.2884465521
      0.8926593441
     -0.5356421298
      0.1079161673
      0.7719825703
      0.5460685360
      0.6929453012
      0.2985906489
     -0.6329287811
     -0.1331638599
     -0.0000101941
      0.4667155053
     -0.4201236066
      0.2388185908
      0.4156424109
     -0.2684451185
      1.0360309656
      0.0291872523
     -0.4010673908
     -0.1672873897
     -0.2722243489
      0.3211601892
     -0.0406186319
     -0.1008712862
      0.2989405522
      0.0553232552
     -0.6200043756
     -0.4984292845
      0.1018308190
      0.5831500923
      0.0307094943
     -0.0247456960
      0.0524026303
     -0.4143092883
      0.0242320286
     -0.4354998298
      0.0799498501
     -0.3409359356
      0.1124177172
      0.0224110261
      0.1481539471
      0.3328299834
     -0.3197291278
      0.1730030414
      0.7475296770
      0.1965282544
     -0.1328665687
      0.1476643322
     -0.4407022984
      0.1445240186
     -0.0791301685
     -0.0481053427
      0.2085535455
     -0.0651754809
     -0.4659070550
      0.1028401440
      0.1569544151
      0.1282746866
     -0.3939341951
     -0.5429717456
      0.2462039154
     -0.3151373018
     -0.5206096025
      0.9485817118
     -0.2264585705
      0.4739956469
     -0.4006467158
      0.4811735113
     -0.3783876152
      0.0525403195
     -0.0504830479
      0.3237120225
     -0.2756881145
     -0.1605758069
      0.0268704062
     -0.0163695243
      0.0399785086
     -0.3951961528
     -0.1028442058
     -0.5716587837
      0.2018841213
      0.4769302713
     -0.2824091680
      0.2453483086
      0.5260102369
      1.0604269916
      0.2704449425
     -0.2918710354
     -0.3420776172
     -0.5920793249
      0.3670228143
     -0.0421781149
     -0.0383731241
     -0.0364195562
      0.0866245856
     -0.2430221780
      1.0548570883
     -0.2683361760
     -0.7408555912
      0.3050482949
     -0.5436925860
      0.1365261222
     -0.2705371562
     -0.9525031378
      0.6591565814
      0.3920598437
      0.3176038966
     -0.1391765293
     -0.0762565874
      0.0984814923
      0.5049821544
      0.0988598065
     -0.2826686491
     -0.4015327900
      0.1356520656
      0.0652008685
      0.3063629636
      0.1444768683
      0.0011288424
      0.2072356684
     -0.0144333560
      0.0911705202
     -0.2621787928
      0.5810254071
      0.8188911570
      0.5068870130
      0.5092153827
      0.0689814307
     -0.4013148871
     -0.5191146105
     -0.0498539275
      0.4214464191
     -0.1320713879
     -0.0727897027
     -0.0056354504
     -0.7830812879
      0.2675681956
      0.4085614561
     -0.1897570560
      0.1610329943
      0.0349087916
      0.3514430574
      0.1432215475
     -0.4998338944
      0.5234389159
     -0.1859730900
     -1.4665280052
      0.0502179849
      0.1279676655
      0.5826211218
      0.0209404911
      0.0855059300
     -0.0059621856
     -0.3687716820
     -0.8368075347
     -0.1175235676
     -0.5827243688
     -0.0284634298
     -0.1438237418
     -0.4090479045
     -0.1455078756
      0.2420109563
     -0.1339564836
      0.6135646742
      0.3104752636
      0.6545734320
     -0.7467285410
     -0.3414664748
     -0.3300387752
      0.1996448129
      0.2523986808
     -0.4816386554
     -0.2283531801
      0.2072205359
     -0.1023227345
      0.1198969089
     -0.2390788960
      0.4691780906
     -0.2959692331
      0.0955942781
     -0.0382043219
     -0.1926357525
     -0.3476220409
      0.7063913468
     -0.0198485559
      0.1618380439
     -0.2906208266
      0.2450494898
      0.0970624804
     -0.4078815553
      0.1988174707
      0.1754367105
      0.0941376538
     -0.0454375105
     -0.1193050248
      0.0180702882
     -0.7915117174
      0.1705214874
     -0.4826308344
     -0.4632815627
     -0.0017233049
      0.9240321703
     -0.0187855206
     -0.0129701514
      0.5906829992
     -0.4746706178
      0.6343644910
     -0.5117529536
      0.3423313678
     -1.1719599412
     -0.1164392581
      0.3430066328
     -0.0826546835
      0.1060346294
     -0.3423246778
      0.1645642505
      0.3066193419
      0.2892727356
      0.3471234589
      0.2831630574
      0.2058172374
      0.0640600063
      0.5074633994
     -0.2398333314
     -0.1428143334
      0.0350726778
      0.7799113283
      0.3559455076
      0.1535208757
     -0.3055450555
      0.5412109549
      0.1853746985
      0.2310218127
     -0.0192084916
      0.3669440522
     -0.2492364253
      0.5366845670
      0.1738672452
      0.0119950713
      0.4026428641
     -0.0235894323
     -0.3530584719
      0.6850455038
     -0.0158691855
     -1.1354155049
     -0.1044847346
      0.5290699586
     -0.5562067545
      0.1091923499
     -0.5638329981
      0.5529756301
     -0.2788776660
     -0.0643517640
      0.2458468254
      0.0685968045
     -0.6896069710
      0.3428927871
      0.5623102130
     -0.0344275599
      0.0678577206
      0.5924993504
      0.3050550684
     -0.1989258683
     -0.7600336111
     -0.2306011563
      0.3095718393
      0.8067046490
     -0.2480381655
     -0.2849592924
     -1.4466344641
     -0.4634530052
     -0.4584179915
     -0.3275720421
     -0.2968532424
      0.2761059641
      0.2800425348
      0.0692189847
     -0.1079199677
     -0.2483168473
      0.1974029459
     -0.1250144482
     -0.3552866475
     -0.1137687882
     -0.4066163581
     -0.1472634959
      0.5157330593
      1.1355404624
     -0.0888761295
     -0.1973406276
     -0.3985878376
      0.3306170397
     -0.1597608854
     -0.0053271097
     -0.2849044357
      0.5254723310
     -0.5562884639
      0.4935037989
     -0.5755338762
      0.1106244959
      0.3928431830
      0.0046543353
     -0.3399307776
      0.3285448707
     -1.0010911779
     -0.2902883160
     -0.0201691196
      0.4833946390
     -0.5201201496
     -0.0272970879
     -0.3057823943
      0.4869595963
     -0.1297571590
     -0.2304382638
      0.1358107882
      0.3134690222
     -0.6508306226
      0.3032772177
      0.3312180776
      0.1356121749
     -0.0123230004
      0.7907184981
      0.1183882321
     -0.0054762225
     -0.4982245900
      0.1715923437
      0.0829583198
     -1.1237806799
     -0.1587388736
      0.6805984541
      0.5686141431
      0.1914485261
      0.0944966834
      0.0835607087
     -0.0188543242
     -0.8554588094
      0.0340430868
     -1.1931358974
      0.2926783477
     -0.1075457960
     -0.0031948514
     -0.5449597431
      0.5530087228
     -0.3505355517
      0.7647136875
     -0.0107702777
      0.3777500745
     -0.3674354980
     -0.5090181877
      0.2702511577
     -0.5494860349
      0.3645374415
     -0.0698795922
      0.0369265473
     -0.0689661183
      0.5511201306
     -0.1521693188
     -0.4008007458
      0.1455798042
     -0.2896290681
      0.1413730681
     -0.2190730210
      0.3751811561
     -0.0255062822
     -0.6465011373
     -0.3390118668
     -0.0002929815
     -0.5313428236
     -0.5228633360
     -0.0236116940
     -0.3347300893
      0.6867089452
     -0.2127977105
      0.1563180366
      0.1278415330
     -0.7892099055
     -0.4650033773
     -1.4052898080
      0.3923830545
     -0.5199605361
     -0.5128576327
      0.2213417024
      0.7856732678
     -0.3157159611
     -0.2038898270
      0.1279552455
     -0.6137246003
     -0.0752613514
     -0.2037110045
      0.2424019723
      0.3626147330
     -0.8046943112
      0.5081110715
     -0.4239449494
     -0.3971287569
      0.3714358239
     -0.2489674692
      0.1982261175
     -0.2536794513
      0.4178355423
     -0.2899722361
      0.3891326656
     -0.2807915549
      0.5468868767
     -0.6840591105
     -0.5274869101
     -0.0604605994
     -0.0819512759
      0.0099948594
     -0.0345091772
      0.5314888210
     -0.3075735765
     -0.1145313979
     -0.4617969276
      0.3845050835
      0.9522263462
      0.3621237142
      0.1495263272
      0.1882796474
      0.4651320299
     -0.2625141182
      0.8069072750
     -0.4792822418
      0.2546013068
     -0.0795530550
     -0.6161106110
     -0.0976317497
      0.5474166544
      0.1102509069
     -0.3462508938
      0.4177202157
     -0.3874224393
      0.0778811098
      0.0246629379
     -0.0529850802
      0.9553248110
      0.5980997308
      0.7810224456
     -0.0475915656
      0.1628244804
     -0.3218061346
      0.4350779394
     -0.3206528461
      0.3027531820
      0.4813875107
     -0.0836657451
     -0.1733852897
     -0.3247353169
      0.2328233632
     -0.0104814229
      0.1526362537
     -0.4097604427
     -0.1647577504
      0.2831455235
      0.1052612003
      1.1453776721
     -0.3589467776
     -0.0330352986
      0.1189704604
      0.3532979130
      0.5707949855
      0.1113345250
     -0.2891949309
      0.1190973850
     -0.1910080926
     -0.4415304104
     -0.1384708758
     -0.0372799073
     -0.0149452713
      0.1006145080
      0.5041429489
     -0.1119076615
     -0.2518803240
      0.3437540428
      0.2969131792
      0.0948603423
      0.1218951089
      0.3125757228
      0.0147162590
      0.3287306271
      0.2809918585
      0.1047162920
      0.0059917093
      0.1876454713
     -0.3595249550
      0.1769505150
      0.2094831610
     -0.2925214725
      0.1488318728
      0.1259687163
     -0.1591439001
      0.4124959778
      0.1980464701
     -0.2046336168
     -0.0775049654
      0.2706936756
     -0.2265444005
      0.1068746089
     -0.3184645541
     -0.1701804314
     -0.1265960285
      0.7905125190
     -0.2336748958
      0.2356088751
      0.1760855297
     -0.3300544015
      0.3360661352
      0.1385987420
     -0.4108774451
      0.1996764645
      0.0361791606
      0.6313222868
     -0.1155186706
      0.0683108837
      0.3630431493
      0.0629664489
      0.0410090007
     -1.0365378534
      0.0784497877
     -0.2508876150
      0.1210057976
     -0.5455720748
      0.1361439595
     -0.4724750877
     -0.0980700405
     -0.0426134611
     -0.8006698948
     -0.3101857567
     -0.9608747503
      0.0946918696
      0.7539957472
      0.6393890161
     -0.7385391092
     -0.5551497468
     -0.3397431909
      0.2379799503
     -0.0529579955
     -0.9369694216
      0.2817813160
      0.1585893714
      0.2621001634
     -0.0300329565
      0.0921945135
     -0.5195122546
      0.3454331927
      0.5710681837
     -0.5795902655
     -0.4357664148
     -0.2737213219
     -0.0506985916
      0.3681519885
     -0.0949986148
      0.1057205902
     -0.0734553727
     -0.3070041100
     -0.3463401480
     -0.0718667110
     -0.9497906871
      0.5114535206
      0.1096510506
      0.1047578240
      0.0260436728
     -0.3416398273
      0.2799931712
      1.0768891247
     -0.0903608349
      0.0518349824
      0.4341026425
     -0.2952988899
     -0.1219025853
     -0.3038685135
      0.1309266332
     -0.2223204348
     -0.4027557745
      0.0170417745
      0.3758978173
      0.3346462640
     -0.6996210010
      0.0915529667
     -0.3327779389
      0.4499312551
     -0.5571174337
      0.0073517716
     -0.6357878882
      0.3867059827
      0.3469633967
      0.1051184780
     -0.5703300161
     -0.5542676127
     -0.1493420301
     -0.0813678324
      0.0943715754
     -0.4402744010
     -0.0538960114
      0.0164094545
     -0.3297249876
     -0.0065467043
     -0.6510250557
     -0.1143272292
      0.3855106453
     -0.5536245103
     -0.1958129692
     -0.0186817887
     -0.1288101606
      0.4932966034
      0.1153350164
     -0.4074926179
     -0.2767908901
     -0.3250325052
     -0.1217628037
      0.3895892029
      0.2547104305
     -0.0007647977
      0.0521612971
      0.1855970622
     -0.2034382482
      0.4304304026
     -0.0676696478
      0.2692045299
      0.4658095267
     -0.0723219018
      0.1826512783
     -0.6338704247
     -0.1012182744
      0.7917183361
     -0.0721676574
     -0.0240584177
      0.0092949129
     -0.1383818155
      0.0078812045
     -0.1976567765
     -0.1779445766
     -0.5545445666
     -0.1842523636
     -0.3674501606
     -0.2028488943
      0.3142493198
     -0.5866371893
      0.5174473110
      0.2013323949
      0.2077107642
     -0.1179106718
     -0.3320756223
     -0.0888922610
      0.7477032717
     -0.1157011842
     -0.1590200995
     -0.2329384045
      0.0233462657
     -0.1365947484
     -0.3619585361
     -0.0100262815
     -0.3645442826
      0.2827526977
      0.0833159284
     -0.4442654429
      0.0650626775
     -0.7885261394
     -0.2115893052
      0.2928785293
     -0.6705692638
     -0.3778213314
     -0.0561357795
      0.5432222909
      0.5304675403
     -0.2858073432
     -0.3096040744
     -0.4597370482
     -0.5007314064
      0.2246161248
      0.0883933793
      0.1542080998
     -0.3543623617
      0.2806338604
     -0.0845780534
     -0.0341956816
      0.3490286398
      0.0547899123
      0.1447036693
      0.3364558591
     -0.0355800171
     -0.1510391816
     -0.2211101138
      0.0575871579
      0.2061297637
     -0.4400700777
      0.2416474918
     -0.0323132057
     -0.0450826541
      0.1791662096
     -0.4030835236
      0.1789562377
      0.0146651668
     -0.0897359956
     -0.2908552268
     -0.8695522188
     -0.1220033985
      0.0664312214
     -0.2166620644
      0.0484030413
     -0.8883032992
      0.1020244791
      0.1181977109
      0.5144059803
      0.0661291228
     -0.3636657608
     -0.1395644141
     -0.2614379970
      0.0967784943
      0.2488248936
     -0.6991035835
     -0.5715643569
      0.1570935119
     -0.0571966513
      0.0483869660
     -0.1266017677
      0.0310254381
     -0.4826500073
      0.0634351344
     -0.3080672707
     -0.3214138342
     -0.5225239498
      0.1680734982
      0.3341240262
     -0.2038050489
     -0.0492127465
     -0.2588179483
     -0.4113892026
     -0.0793116521
     -0.2277281230
     -0.0491512650
      0.4761527253
      0.0596939633
      0.0798740177
      0.0974126445
     -0.2845469471
      0.3034715227
     -0.3528748797
      0.0353959437
     -0.2403864724
     -0.4245722941
     -0.3583222129
      0.1644411404
      0.0270102661
      0.0660532153
     -0.1136951583
      0.0388378094
      0.2221906111
      0.1457927822
     -0.2917526695
     -0.2866561833
      0.0260829920
     -0.1816588298
     -0.0997405473
      0.4042215255
     -0.4319454305
      0.2132930105
     -0.1403122509
     -0.2316943891
     -0.2615218133
     -0.2910515333
     -0.3359134769
      0.9171004098
     -0.2151004508
      0.2973996016
      0.2394265362
      0.1157959263
     -0.0313031996
      0.1798524985
     -0.3144872148
     -0.4446370364
     -0.2138391189
     -0.0141088980
     -0.1679682946
      0.0777844665
      0.0637784984
     -0.1815410151
     -0.2719225487
     -0.1524983146
     -0.2421971990
     -0.2803838189
     -0.1204692049
      0.1743185840
     -0.2876595783
      0.3694168917
     -0.2425553820
     -0.1901985473
      0.1053367104
     -0.0848006447
     -0.2858517718
      0.2367878113
     -0.7989956582
     -0.4899232227
      0.2374740240
      0.2277477596
     -0.2934776066
     -0.0816997038
     -0.0514816837
      0.0585590744
      0.4053158932
      0.0127826872
     -0.8367598240
      0.1945358171
     -0.6884953380
     -0.1986916656
      0.1221165464
      0.1040525801
     -0.3854218035
     -0.8865883161
      0.8625804190
      0.2964111961
     -0.2209920379
      0.1613738983
     -0.1194049381
      0.0989763519
      0.3241058789
      1.1285009213
      0.4190289514
     -0.2522208658
     -0.0289447905
     -0.2350334254
      0.6252085642
      0.5083566025
      0.4307606298
     -0.0031550980
      0.2335250727
      0.3215129556
     -0.7208948524
     -0.3987523775
      0.1484761918
      0.2672231850
      0.0380337885
     -0.2476897006
      0.0817385781
      0.3655138796
      0.3042342680
      0.0516028391
     -0.1121689415
     -0.0895196394
      0.2632759683
     -0.3189010164
      0.1452128978
     -0.0645460153
      0.5518919294
     -0.1836522913
      0.3464405465
      0.8361595298
      0.9702618168
     -0.8238674293
      0.3377278387
     -0.2564839611
     -0.6747307645
     -0.8618482974
      0.0811346590
     -0.2610139644
     -0.0792925880
      0.7151052626
     -0.6619592406
     -0.2192768129
     -0.0891831526
     -0.3009312349
      0.9743996718
     -0.3313179455
      0.1972268165
     -0.1383024579
     -0.5068791632
      0.1625521930
      0.2148179336
      0.3706804120
     -0.1824742886
      0.2062490522
      0.5487627769
      0.2279507175
     -0.0185301746
     -0.2600028050
      0.1491058472
     -0.4651967569
     -0.5778121710
     -0.5637310105
     -0.2333936050
      0.0887197590
     -0.1689504279
      0.3212335504
      0.1632393826
      0.0085628701
     -0.1736881000
      0.0100076328
      0.8975186281
     -0.2287734838
     -0.5354038118
     -0.2242746517
     -0.6076890157
     -0.0124283920
      0.1840324773
     -0.2116974017
      0.5989695581
     -0.1171209494
      0.1968708765
     -0.2069267843
      0.1266907820
      0.0474622820
      0.5645565001
     -0.2503557584
      0.1207628553
     -0.7833271650
     -0.1049807142
      0.3761927953
     -0.1012415844
     -0.1993878106
     -0.0957396212
      0.0863882199
     -0.5318233060
     -0.1520286411
      0.3124936118
     -0.3695465838
      0.1679383708
      0.7422354932
      0.3816611614
     -0.8310819903
      0.4107337763
      0.2360684441
     -0.9941866488
     -0.8257273851
      0.3416575080
     -0.5996035876
      0.1040229310
     -0.2579223510
      0.4974776450
     -0.1042705443
      0.1321232209
      0.2433958755
     -0.2801337359
      1.3531145644
      0.7901487070
      0.3388496430
      0.2132228682
     -0.4455320931
     -0.2445783232
     -0.2500985167
     -0.1293456963
      0.3563336898
     -0.1904716586
     -0.1945800852
      0.2210412490
     -0.2097108609
     -0.6326000745
     -0.7344220085
      0.4615137405
     -0.0584445439
      0.1254143454
      0.6516343762
     -0.5542417265
      0.6561858990
     -0.3705663359
     -0.1408000995
     -0.0863890051
     -0.0521220542
      0.4920437856
     -0.0404247560
      0.3021467365
      0.0216622172
     -0.8425887716
     -0.0590234781
      0.4848883101
     -0.7886172899
     -0.1858279427
     -0.0651498861
      0.2549861585
     -0.4651736128
      0.1352097531
      0.6996572220
      0.0608400492
     -0.0593267581
     -0.2650543224
     -0.1174480948
      0.7642579597
      0.1851890884
      0.1587179137
      0.2750972604
      0.3666009916
      0.0913620712
     -0.3092408208
     -0.6295432696
      0.1766980146
     -0.4783618363
     -0.3865635017
      0.2429811030
      0.3896451681
     -0.2141584019
     -0.0224840260
     -0.7321664330
      0.2502533868
     -0.1770329169
      0.1907514452
      0.3483856941
     -0.4718822940
      0.1852603053
      0.5688194076
      0.5379076693
     -0.0076215560
     -0.5945304761
     -0.1210668369
     -0.6348270399
      0.0874885199
      0.2989276134
      0.3085963677
     -0.0238931603
      0.2154437657
     -0.0464229285
      0.1506676030
      0.0795568498
      0.2999157121
      0.1656091509
      0.1105234405
      0.2228772110
     -0.4153836401
     -0.4827061068
      0.1284667176
      0.3372392110
     -0.0997433545
      0.2837204550
     -0.7670535438
      0.1966563436
      0.3582703526
      0.7871457668
      0.3584480478
      0.2133094854
     -0.1463632288
      0.1092343255
     -0.0167687067
     -0.2246860207
      0.2486619105
     -0.0618494121
      0.1552757827
      0.5748268152
     -0.2992136614
     -0.1656409174
      0.2175504465
      0.7034211667
      0.1511327517
      0.3169268403
      0.1017042045
      0.6008852457
      0.0724918192
     -0.2155464191
     -0.1604684834
     -0.1924170801
      0.0206062084
      0.3644477720
     -0.1821710143
      0.4857219779
     -0.0351613438
      0.4024024865
     -0.5691798436
     -0.4302903323
     -0.2551369524
     -0.1285715669
     -0.2174243028
     -0.0815330315
     -0.1627345181
      0.2534579933
      0.2891264538
      0.2367237322
      0.2527675502
      0.3141168560
     -0.4425614082
      0.2540259670
     -0.7468848605
      0.2639756082
     -0.4931028770
     -0.0546016098
     -0.2173342514
      0.1699663576
      0.2320793901
     -0.1146410114
     -0.4190767231
      0.2800124402
      0.4022232995
      0.7015390333
      0.0082404698
     -0.2571425541
      0.0035235939
      0.1452177296
     -0.2482438317
      0.4147371570
     -0.4202541526
      0.6764938457
     -0.1937595974
      0.0329841675
      0.3441597474
     -0.4192081548
      0.2020408776
      0.0165806736
      0.1383219370
      0.1227257821
     -0.0463098397
      0.6390552652
      0.3382508145
     -0.2716393054
     -0.3353342797
     -0.2116089104
     -0.7214294040
     -0.1024420987
      0.1141924418
     -0.4298519405
     -0.3467580295
      0.6108945629
     -0.0576965907
     -0.1936624335
     -0.3614269409
      0.3472654669
     -0.4607306444
     -0.3252717068
      0.1733691933
      0.0791042148
      0.2280412661
     -0.2679283140
     -0.2117616582
      0.2725582256
     -0.5488122566
      0.2643417843
     -0.5266230654
     -0.6102197401
     -0.8848743503
      0.1383134819
     -0.7847253581
     -0.0319987080
      0.5822599476
      0.3662380788
      0.3285324723
     -0.1183862014
     -0.0828471082
      0.1172452618
     -0.0931500770
     -0.0193101523
     -0.1701107832
      0.2109003710
     -0.0122958767
      0.0227182613
     -0.3035963262
      0.4080392876
      0.0163810757
     -0.0462822710
     -0.2227554530
      0.0486243710
      0.0025979980
     -0.3128608509
     -0.5083169080
      0.4776893993
      0.1649364112
      0.0334019098
      0.5597821382
      0.5173938299
      0.1315433958
      0.0362259761
      0.3144771961
      0.0581583950
      0.0413597694
      0.3358404829
      0.1387241540
     -0.0991431488
     -0.4989900955
     -0.0888163259
      0.0476888989
      0.1030088864
      0.0173676856
      0.4294265022
     -0.2313731793
      0.1649750653
      0.0392645513
     -0.4489751357
      0.0393111959
     -0.4344241754
      0.0114861913
      0.0805231872
     -0.1883190865
     -0.3507789942
      0.6078116905
      0.0050567016
     -0.0108067149
     -0.3462576114
     -0.0288408962
      0.1027481766
      0.2736178636
     -0.1882112479
      0.5590949067
      0.0380056474
      0.4836430463
      0.3563819222
      0.0782497605
      0.2580984505
      0.0239149559
      0.4352266939
      0.2386051266
     -0.1426310427
      0.0803587977
     -0.0305036069
      0.3002513217
     -0.6531098189
     -0.0659510689
     -0.3756543085
      0.2375376578
     -0.2664684550
      0.1254743697
     -0.5648111083
      0.3536785419
      0.0816430439
     -0.1769236029
     -0.2129088375
     -0.1945252505
     -0.2137542500
     -0.3925912143
      0.0920898539
     -0.0975547948
      0.0003672916
     -0.2270685574
     -0.0126104629
      0.0799607116
     -0.2572486008
      0.2974195191
     -0.2957383087
      0.2355279661
      0.1542209896
     -0.0146690160
     -0.3325299569
      0.2173670825
     -0.0283177064
     -0.3898057614
      0.3794374307
      0.1144970137
     -0.1086472038
     -0.5577499040
      0.0089039224
      0.2218485387
      0.3577778233
     -0.0009385517
     -0.4278961673
     -0.2780649933
      0.0301841107
     -0.1068946414
     -0.3146574610
     -0.3806243378
      0.3311438816
      0.0975687947
     -0.1103141023
      0.2114969534
      0.2024762160
     -0.6913336529
      0.7235579773
      0.3505356754
     -0.4629342501
     -0.3043755999
     -0.2271784239
      0.1563070239
     -0.2549710365
     -0.0702361505
      0.1500067355
     -0.5007253617
      0.1899472988
     -0.4600973382
     -1.1422298140
     -0.5251530635
     -0.2159135197
      0.5048460941
      0.9612105147
      0.2561224201
     -0.0789512083
     -0.0748129131
      0.2277134134
      0.0896741284
     -0.0271455193
      0.1432253646
     -0.4573455550
      0.1736880851
     -0.0432667091
     -0.1762214007
      0.0630767026
     -0.1596149686
     -0.2006451089
      0.0015812800
      0.1648304090
     -0.5716613528
      0.0910320955
     -0.1918721790
     -0.0978033451
     -0.0724541317
      0.0668478674
      0.0633644720
      0.0405836381
      0.1870813247
      0.1471721374
      0.2092026698
     -0.3236256319
     -0.1469602531
      0.2076953301
      0.4007404935
      0.3770429585
     -0.0680875977
     -0.0338465477
      0.4475180846
      0.0600584040
      0.2595918089
     -0.1975377996
      0.2399466981
     -0.0977209144
      0.5339461920
      0.2339399696
      0.0541874513
     -0.0493678202
      0.0169841392
     -0.2131336368
      0.7699858307
     -0.2580576048
      0.1255537518
     -0.4280492464
      0.2484339704
      0.3312576346
      0.0818201883
     -0.0254758515
      0.3319532946
      0.0375927179
      0.8175612201
     -0.0080600117
      0.0796768280
     -0.5106023456
     -0.2874939708
      0.0120704997
     -0.0436535661
      0.0792086973
      0.0115500533
     -0.0442678479
      0.0996811279
      0.2492810232
     -0.0655140459
      0.0652293686
      0.2159256529
     -0.3747992196
      0.0597085201
     -0.0362964163
     -0.2234005576
      0.2731930729
      0.0534621813
     -0.1171704651
     -0.1639828633
      0.2307151067
      0.4513665037
     -0.1642073598
      0.2257102814
      0.3729440679
     -0.0879739010
      0.3544090857
      0.4057097847
     -0.3114257131
     -0.4273249742
      0.0921913226
     -0.4746772615
      0.2623305930
      0.2198600708
      0.1477879272
      0.0445017950
     -0.1777500043
      0.7915226546
      0.1149858707
      0.1533784444
     -0.2759501548
      0.0143598796
     -0.2497890378
     -0.3498342756
     -0.1910896481
      0.3758595617
      0.2329322664
      0.5388793010
      0.0169841002
     -0.6072678956
      0.2657173029
     -0.3111970498
     -0.0285909146
      0.0145827506
      0.1312552234
     -0.2593982438
      0.1484777850
      0.2087186268
      0.0733790900
     -0.6315322206
      0.1864529036
      0.5190640959
     -0.1889132045
      0.4275648253
      0.0084426828
      0.1529054832
      0.4504576410
     -0.0068825653
      0.0261679799
      0.0450072617
     -0.5974046103
      0.1330852495
     -0.3724407097
     -0.2279368140
      0.5373446430
     -0.0815055339
     -0.1411981442
      0.6494413511
      0.1756799692
     -0.0251019751
      0.6890207503
      0.0516580643
      0.0242037937
     -0.2632085640
     -1.0119658955
     -0.7886094250
     -0.1500993814
      0.5648938537
     -0.3305217961
     -2.0247928541
      1.0126848312
      0.4761744049
      1.5151084355
      0.5562052669
     -0.9799684519
     -1.5045925398
     -1.0563004045
      0.0970772693
      0.7899625715
     -1.0645568563
     -0.4775118254
     -0.1722130193
      0.0603261616
      0.3364368340
     -0.4022010420
     -0.0410667184
      1.5276781497
     -0.6976759643
     -0.0564933882
      0.0250537938
     -0.4146375185
      0.2906544860
      0.2266096940
     -0.1117112204
      0.8847582000
     -1.1391919647
     -0.0452906250
     -0.2685449630
     -0.3743155417
     -0.5543539882
     -0.1873069244
     -0.2216982361
     -0.7424453536
     -0.6966478133
     -0.0865635060
     -0.7538601149
      0.0880192141
      0.0074557428
     -1.0657139311
     -0.5951514282
      0.5931848966
      0.2153963930
     -0.3539988891
     -0.4507849910
      0.0031879599
     -0.3831254997
      0.3268925575
     -0.3180951938
     -0.4284960268
      0.6123277508
     -0.1595935239
     -0.6380311695
      0.1186210718
      0.0223559184
     -0.4015089421
      0.0513778158
     -0.1013967262
     -0.1485904160
     -0.1771667085
      1.1967653527
      0.5092407288
      0.8981047387
      0.1170001125
      0.1977055539
      0.3552792188
     -0.1701478899
     -0.1794042854
     -0.6468488877
     -0.1216280412
     -0.4722832769
     -1.0501735837
      0.1140156775
      0.3512517596
     -0.0478699960
      0.1504179313
      0.0478070084
      0.3119538576
      1.1422184754
     -0.1474660845
      1.0339931672
      0.1253935990
      0.2807211144
     -0.2451094884
     -0.1469541589
      0.2550968313
      0.0608642774
      0.2876518433
     -0.5622121721
      0.4303609882
      0.3657696534
     -0.7435881668
      0.3628170603
      0.4790310558
      0.1942750226
     -0.1524338469
      0.4172296292
     -0.3460846954
      0.7054783530
     -0.2730919919
     -0.2145588943
      0.3332259488
      0.1637227762
     -0.1241297168
     -0.6133209328
     -0.3132048364
     -0.0451202210
      0.7687074920
     -0.1556830233
     -0.5570385528
     -0.0114428189
     -1.1740502663
      0.1226471394
      0.5268749963
     -0.0374689614
      0.3355673226
      0.0678874262
     -0.5315094517
     -0.6953604002
      0.7118316172
      0.2286688515
      0.6065930399
      1.1235514776
     -0.2261020664
     -0.8838949191
     -0.6302800855
      0.3919327781
     -0.3587499724
      0.3246214918
     -0.4741612717
     -0.0698028440
      0.8093645541
      0.3417836401
     -0.1871716063
      0.3353006622
     -0.0496025384
      0.3253459181
     -0.3319690689
      0.6071306662
     -0.0207773706
     -0.6406669431
     -0.5971989721
     -0.9357939754
     -0.2667296809
      0.3740135719
      0.5831967701
      0.2962832109
     -0.0693583481
     -0.9145434710
     -0.0444250196
      0.6709317575
     -0.6002002928
      0.7996024779
     -0.1269403680
      0.4445553749
      0.1462314487
     -0.0889097744
     -0.5793741017
     -0.4849290819
      0.0028485652
      0.4267743159
      0.0617809644
     -0.8688993761
      0.2602238495
      0.4463343845
     -0.5416620844
      0.0460960767
      0.1583260471
      0.7714095032
     -0.3174667321
      0.6389227444
     -0.1851502192
     -0.2908762544
      0.7036110157
     -0.6019004812
     -0.4672638164
      0.2915599763
     -0.3016427112
     -0.0245268327
      0.3670296085
     -0.7503032503
      0.7494338430
     -0.0749719410
     -0.2313134058
      0.0500236416
      0.9042916034
      0.1123777060
     -0.3190057972
      0.1220124425
     -0.0024261599
      0.0664162215
      0.5001376615
     -0.3396991419
     -0.2286253747
      0.5507760710
      0.0205199155
     -0.3738048011
      0.8927514750
     -0.7433534440
     -0.3262740810
      0.2636579683
      0.5994753262
     -1.2687398536
      0.0555055796
     -0.3426980648
     -0.7810036108
      0.2125968271
     -0.6765458291
     -0.0296643263
     -0.2610536836
      0.0528751192
     -0.6371843424
     -0.6537380770
      0.1493773743
      0.0553801190
     -0.0949770248
     -0.0585477438
      0.7691433967
      0.8046831936
      0.5693832552
      0.3278993626
      0.1114014775
      0.3276934235
      0.4886277600
     -0.4017009501
     -0.5449005789
     -0.3991380325
     -0.4763731589
      0.3154257054
      0.0995778806
      0.2455167803
     -0.3684977054
      0.0340005545
     -1.2997882205
      0.5487887366
      0.1504015514
     -0.0513797666
      0.3807872311
     -0.9817441907
      0.6975956688
      0.9779369036
     -0.0312131206
     -1.4781686624
     -0.5654593001
      0.0622686935
      0.1859126109
      0.4743330961
     -0.4686057773
     -0.3515513190
     -0.7937880478
     -0.2506325167
     -0.4149841426
      0.0651161939
     -0.4410092478
     -0.0979591400
     -0.5182811952
      0.1802312848
      0.0059071226
      0.7086397102
      0.4839921755
     -0.5997882581
     -0.6669703950
     -0.1777413928
      0.4246553669
      0.2591850056
     -0.4783096988
      0.6250618235
      0.6732547707
      0.3417611777
     -0.0903958249
     -0.1300748878
     -0.2525322480
      0.2843196174
      0.1297482398
     -0.1416887619
     -0.5760110849
      0.1473820478
      0.2271488208
      0.5171786434
      0.4596139410
      0.0934841675
      0.6311326739
     -0.7289168929
      0.1436479696
     -0.0476287858
      0.9983843800
      0.7447261896
      0.3283349437
     -0.2732097939
     -0.4096583772
     -0.5511633378
     -0.1113296137
      0.4801979557
      0.0816366835
     -0.7175790177
      0.4390139711
     -0.5811060774
     -0.2451077857
      0.3305055425
     -0.6995925328
      0.1571422753
      0.6125801605
     -0.2496114684
     -0.4199975187
     -0.9960596720
     -0.4374024585
      0.4546499099
     -0.1328386111
     -0.2675547209
     -1.0272568766
      0.4576363822
      0.3962800358
     -0.1408587875
      0.1700812804
      0.8032026166
     -0.4592330186
      0.6846507472
      0.4714473178
      0.2204650348
     -0.4020651423
      1.1990351088
     -0.4500198404
     -0.6704769892
     -0.7098164124
      0.1273512401
      0.0570746006
      1.2267992382
      0.4235144246
      0.8495315119
      0.2880869368
     -0.4370943103
     -0.7436939613
     -0.5100620707
      0.7353995864
      0.4141299857
     -0.3057611994
      0.1027703430
      0.9146038268
     -0.2159053020
      0.8191617576
      0.2665467469
     -0.7134328889
      0.4642412184
     -0.3006238849
     -0.2003878393
     -0.3157633625
      0.8086533524
      0.1653450890
     -0.0709881469
      0.6549162489
      0.5829386008
     -0.0901538520
     -0.2893042941
     -0.6821602665
      0.4419628962
     -0.3196472930
      0.3699647091
      0.7503023329
      0.8405790332
      0.3253204572
     -0.6174237968
     -0.0395610634
     -1.0577684564
     -0.7573679585
      0.6519303125
     -0.2322309866
     -0.3306565683
      0.3218872699
     -0.5180237683
      0.4540537048
      0.1295478407
     -0.8270621055
     -0.4849905520
     -0.1301645630
      0.1004710638
     -0.0306525542
      0.7334460833
     -1.1649970552
     -0.1441413501
      0.1990377017
     -0.6363726825
     -0.3225542692
      1.0921960146
      0.6013016196
     -0.0134110730
      0.0531995571
     -0.7844895012
      0.2268000725
     -0.0412845849
      0.5835962864
     -0.0239980116
      0.9455948056
     -0.2273735902
     -0.2495273983
     -0.1548048245
      0.4986352609
     -0.7776549753
      0.7478831800
     -0.0851576692
     -0.2379611695
     -0.8240752873
     -0.6502153318
     -0.2308642619
      0.4716940617
     -0.4700831511
     -1.1607359808
      0.4828045856
      0.1666952385
     -0.1886962187
     -0.4361619183
      0.2072654700
     -0.3730850365
     -0.4646132295
      0.6560795701
     -0.5764885036
     -0.6802131548
      0.7117912390
      1.2666369225
      0.5947040502
     -0.6320732077
     -1.6022190794
      0.4676319025
     -0.5409044923
      0.3772132957
     -0.0337321971
      0.7066140513
      0.8388668288
      0.0296805152
      1.0827629037
     -0.0824574881
      0.3560266847
      1.1168875606
     -1.2728344438
     -0.1054451149
     -0.0495322820
      0.0069716256
      0.1396545408
      0.1539484765
      0.0958977880
     -0.0379093894
     -0.1535567294
      0.0437596507
      0.0266593656
      0.1485772986
     -0.0702302900
     -0.0274223406
      0.0379881304
      0.1032826216
     -0.0671415566
      0.0873441204
      0.0024981831
     -0.1005392202
      0.0115135950
     -0.0270711056
